
\data\
ngram 1=469
ngram 2=1197
ngram 3=53

\1-grams:
-2.986324	0	-0.30103
-2.986324	00	-0.30103
-2.986324	10	-0.30103
-2.685294	1800	-0.60206
-2.588384	2	-0.4771213
-2.986324	2am	-0.30103
-2.509202	3	-0.30103
-2.986324	30	-0.30103
-2.810233	4	-0.30103
-2.810233	5	-0.4771213
-2.986324	7	-0.30103
-2.986324	9	-0.30103
-1.222896	</s>
-99	<s>	-0.4381346
-2.986324	=	-0.30103
-1.810233	a	-0.3440647
-2.588384	about	-0.30103
-2.208173	academy	-0.5740313
-2.986324	acceptable	-0.30103
-2.986324	accounts	-0.30103
-2.986324	actually	-0.30103
-2.986324	adjourn	-0.30103
-2.986324	advantage	-0.30103
-2.810233	affiated	-0.4771212
-2.986324	affilated	-0.30103
-2.685294	after	-0.30103
-2.986324	against	-0.30103
-2.986324	agenda	-0.30103
-2.986324	ago	-0.30103
-2.986324	ai	-0.30103
-2.442256	all	-0.39794
-2.810233	already	-0.30103
-2.986324	alreday	-0.30103
-2.685294	also	-0.30103
-2.986324	alternative	-0.30103
-2.810233	always	-0.30103
-2.509202	am	-0.30103
-2.986324	american	-0.30103
-2.986324	among	-0.30103
-2.442256	an	-0.30103
-1.986324	and	-0.3129292
-2.986324	another	-0.30103
-2.287354	any	-0.3273589
-2.986324	anything	-0.30103
-2.986324	applies	-0.30103
-2.986324	approve	-0.30103
-2.333111	are	-0.3309932
-2.986324	argument	-0.30103
-2.810233	around	-0.30103
-2.986324	artificial	-0.30103
-2.685294	as	-0.30103
-2.986324	asked	-0.30103
-2.986324	assets	-0.30103
-2.588384	at	-0.3679768
-2.986324	austin	-0.30103
-2.986324	authority	-0.30103
-2.685294	aye	-0.60206
-2.986324	bad	-0.30103
-2.986324	ballot	-0.30103
-2.986324	ballots	-0.30103
-2.986324	bank	-0.30103
-2.141226	be	-0.3187588
-2.986324	been	-0.30103
-2.810233	before	-0.30103
-2.986324	behind	-0.30103
-2.986324	being	-0.30103
-2.986324	believe	-0.30103
-2.685294	better	-0.30103
-2.986324	between	-0.30103
-2.810233	big	-0.30103
-2.986324	bit	-0.30103
-2.986324	bitnet	-0.30103
-2.685294	board	-0.30103
-2.986324	build	-0.30103
-2.810233	business	-0.30103
-2.588384	but	-0.30103
-2.986324	by	-0.30103
-2.685294	bylaws	-0.39794
-2.685294	called	-0.30103
-2.208173	can	-0.3222193
-2.810233	cant	-0.30103
-2.986324	challenges	-0.30103
-2.810233	change	-0.4771213
-2.986324	changing	-0.30103
-2.986324	character	-0.30103
-2.986324	chatting	-0.30103
-2.986324	cities	-0.30103
-2.986324	classed	-0.30103
-2.986324	clock	-0.30103
-2.986324	coast	-0.30103
-2.986324	collecting	-0.30103
-2.810233	college	-0.30103
-2.986324	collision	-0.30103
-2.986324	collisions	-0.30103
-2.986324	come	-0.30103
-2.986324	coming	-0.30103
-2.986324	comment	-0.30103
-2.986324	communication	-0.30103
-2.986324	companies	-0.30103
-2.986324	computer	-0.30103
-2.986324	conduct	-0.30103
-2.986324	consensus	-0.30103
-2.986324	contact	-0.30103
-2.986324	contracts	-0.30103
-2.986324	contributions	-0.30103
-2.986324	correct	-0.30103
-2.986324	could	-0.30103
-2.986324	creation	-0.30103
-2.986324	credit	-0.30103
-2.986324	dariusz	-0.30103
-2.986324	datetime	-0.30103
-2.986324	day	-0.30103
-2.810233	deal	-0.30103
-2.588384	debate	-0.3679768
-2.986324	decided	-0.30103
-2.986324	deductible	-0.30103
-2.986324	defined	-0.30103
-2.986324	devoted	-0.30103
-2.986324	difficult	-0.30103
-2.810233	director	-0.30103
-2.509202	directors	-0.30103
-2.685294	discuss	-0.30103
-2.588384	discussion	-0.30103
-2.986324	distinguishes	-0.30103
-2.810233	do	-0.30103
-2.810233	does	-0.30103
-2.986324	doing	-0.30103
-2.986324	donald	-0.30103
-2.810233	done	-0.30103
-2.685294	dont	-0.39794
-2.810233	dot	-0.30103
-2.986324	early	-0.30103
-2.986324	edt	-0.30103
-2.986324	egg	-0.30103
-2.986324	elapsed	-0.30103
-2.986324	else	-0.30103
-2.986324	email	-0.30103
-2.986324	enough	-0.30103
-2.986324	environmental	-0.30103
-2.986324	essence	-0.30103
-2.986324	evening	-0.30103
-2.685294	every	-0.39794
-2.810233	everyone	-0.30103
-2.986324	example	-0.30103
-2.986324	except	-0.30103
-2.986324	exemption	-0.30103
-2.986324	exempts	-0.30103
-2.986324	existence	-0.30103
-2.986324	existing	-0.30103
-2.986324	explain	-0.30103
-2.986324	exxon	-0.30103
-2.986324	faces	-0.30103
-2.810233	favor	-0.4771213
-2.810233	few	-0.30103
-2.810233	file	-0.4771213
-2.986324	financiation	-0.30103
-2.986324	find	-0.30103
-2.986324	first	-0.30103
-2.986324	five	-0.30103
-2.986324	floor	-0.30103
-2.986324	fold	-0.30103
-2.0086	for	-0.3424227
-2.588384	formal	-0.30103
-2.986324	formally	-0.30103
-2.986324	friday	-0.30103
-2.509202	from	-0.3521825
-2.810233	further	-0.4771213
-2.986324	future	-0.30103
-2.986324	fyi	-0.30103
-2.986324	general	-0.30103
-2.986324	germany	-0.30103
-2.986324	get	-0.30103
-2.986324	getting	-0.30103
-2.986324	gives	-0.30103
-2.384264	global	-0.3357921
-2.986324	goals	-0.30103
-2.986324	going	-0.30103
-2.986324	gone	-0.30103
-2.810233	good	-0.30103
-2.810233	guests	-0.30103
-2.810233	had	-0.30103
-2.986324	hand	-0.30103
-2.810233	hands	-0.30103
-2.986324	happen	-0.30103
-2.442256	has	-0.30103
-2.287354	have	-0.5118834
-2.810233	he	-0.30103
-2.986324	heads	-0.30103
-2.442256	here	-0.39794
-2.986324	holding	-0.30103
-2.986324	home	-0.30103
-2.685294	how	-0.30103
-1.925626	i	-0.3921105
-2.810233	idea	-0.30103
-2.810233	ideas	-0.30103
-2.384264	if	-0.30103
-2.986324	ill	-0.30103
-2.986324	im	-0.30103
-1.889414	in	-0.39794
-2.333111	incorporate	-0.4149733
-2.810233	incorporated	-0.30103
-2.588384	incorporating	-0.30103
-2.986324	incorporation	-0.30103
-2.986324	incorporator	-0.30103
-2.685294	informal	-0.39794
-2.986324	informed	-0.30103
-2.986324	institution	-0.30103
-2.986324	interest	-0.30103
-2.685294	international	-0.30103
-2.685294	internet	-0.30103
-2.986324	into	-0.30103
-2.986324	introduction	-0.30103
-2.986324	irs	-0.30103
-1.76884	is	-0.4020565
-2.810233	isnt	-0.30103
-2.986324	issues	-0.30103
-2.986324	ist	-0.30103
-2.17341	it	-0.3203351
-2.810233	item	-0.30103
-2.509202	its	-0.30103
-2.685294	just	-0.30103
-2.685294	know	-0.30103
-2.986324	lately	-0.30103
-2.588384	later	-0.3679768
-2.986324	laws	-0.30103
-2.810233	least	-0.30103
-2.810233	legal	-0.30103
-2.810233	less	-0.30103
-2.986324	level	-0.30103
-2.986324	liability	-0.30103
-2.384264	like	-0.3802112
-2.986324	listen	-0.30103
-2.986324	logged	-0.30103
-2.986324	long	-0.30103
-2.986324	look	-0.30103
-2.810233	mad	-0.30103
-2.986324	make	-0.30103
-2.986324	makes	-0.30103
-2.685294	many	-0.39794
-2.986324	matter	-0.30103
-2.986324	may	-0.30103
-2.986324	maybe	-0.30103
-2.810233	me	-0.30103
-2.810233	means	-0.4771212
-2.986324	mechanism	-0.30103
-2.810233	meet	-0.30103
-2.986324	meetigs	-0.30103
-2.083234	meeting	-0.31627
-2.509202	meetings	-0.30103
-2.986324	members	-0.30103
-2.986324	minute	-0.30103
-2.986324	minutes	-0.30103
-2.986324	mit	-0.30103
-2.509202	month	-0.4259687
-2.986324	moo	-0.30103
-2.986324	more	-0.30103
-2.986324	most	-0.30103
-2.509202	motion	-0.4259687
-2.986324	motions	-0.30103
-2.986324	motors	-0.30103
-2.810233	move	-0.4771212
-2.986324	mumbai	-0.30103
-2.986324	my	-0.30103
-2.986324	myselfah	-0.30103
-2.111263	name	-0.3357921
-2.986324	named	-0.30103
-2.685294	naming	-0.30103
-2.986324	necessarily	-0.30103
-2.685294	necessary	-0.39794
-2.810233	need	-0.30103
-2.810233	net	-0.30103
-2.208173	network	-0.6690068
-2.986324	networks	-0.30103
-2.509202	new	-0.7781513
-2.810233	newsgroup	-0.30103
-2.810233	next	-0.30103
-2.986324	nice	-0.30103
-2.442256	no	-0.3424227
-2.986324	non	-0.30103
-2.986324	nope	-0.30103
-2.208173	not	-0.30103
-2.986324	now	-0.30103
-2.986324	number	-0.30103
-2.986324	objection	-0.30103
-2.810233	objections	-0.30103
-1.944931	of	-0.3802112
-2.986324	offer	-0.30103
-2.588384	often	-0.30103
-2.17341	on	-0.5314789
-2.509202	once	-0.7781513
-2.442256	one	-0.30103
-2.442256	only	-0.30103
-2.810233	open	-0.30103
-2.685294	opposed	-0.39794
-2.333111	or	-0.30103
-2.986324	order	-0.30103
-2.384264	organization	-0.3357921
-2.986324	organizations	-0.30103
-2.287354	other	-0.3273589
-2.986324	ouch	-0.30103
-2.810233	our	-0.30103
-2.810233	out	-0.30103
-2.685294	outside	-0.30103
-2.986324	over	-0.30103
-2.986324	overused	-0.30103
-2.986324	papers	-0.30103
-2.986324	paperwork	-0.30103
-2.986324	part	-0.30103
-2.986324	participate	-0.30103
-2.810233	passes	-0.30103
-2.986324	pave	-0.30103
-2.588384	people	-0.30103
-2.986324	per	-0.30103
-2.986324	period	-0.30103
-2.986324	person	-0.30103
-2.986324	personal	-0.30103
-2.588384	place	-0.30103
-2.986324	pleaded	-0.30103
-2.685294	please	-0.30103
-2.442256	pm	-0.30103
-2.986324	point	-0.30103
-2.986324	poland	-0.30103
-2.986324	poses	-0.30103
-2.986324	possibilities	-0.30103
-2.986324	present	-0.30103
-2.986324	probably	-0.30103
-2.588384	problem	-0.30103
-2.810233	put	-0.30103
-2.810233	quartznet	-0.30103
-2.986324	question	-0.30103
-2.986324	radius	-0.30103
-2.810233	raise	-0.30103
-2.986324	raising	-0.30103
-2.986324	readers	-0.30103
-2.986324	ready	-0.30103
-2.810233	really	-0.30103
-2.986324	reason	-0.30103
-2.986324	recess	-0.30103
-2.986324	remark	-0.30103
-2.986324	replace	-0.30103
-2.986324	request	-0.30103
-2.986324	restrictions	-0.30103
-2.685294	right	-0.30103
-2.986324	road	-0.30103
-2.986324	robin	-0.30103
-2.986324	room	-0.30103
-2.986324	ruled	-0.30103
-2.986324	said	-0.30103
-2.588384	say	-0.30103
-2.986324	scattered	-0.30103
-2.986324	schedule	-0.30103
-2.986324	scientists	-0.30103
-2.442256	second	-0.3424226
-2.986324	secret	-0.30103
-2.810233	secretary	-0.4771213
-2.685294	seems	-0.39794
-2.810233	sense	-0.4771213
-2.986324	sets	-0.30103
-2.986324	shortly	-0.30103
-2.588384	should	-0.3679768
-2.986324	sign	-0.30103
-2.810233	similar	-0.30103
-2.986324	since	-0.30103
-2.986324	singapore	-0.30103
-2.986324	small	-0.30103
-2.986324	so	-0.30103
-2.986324	some	-0.30103
-2.810233	someone	-0.30103
-2.685294	something	-0.30103
-2.810233	somewhere	-0.30103
-2.986324	sorry	-0.30103
-2.986324	sort	-0.30103
-2.986324	sound	-0.30103
-2.986324	speak	-0.30103
-2.588384	speaker	-0.4771213
-2.986324	speakers	-0.30103
-2.986324	special	-0.30103
-2.810233	start	-0.30103
-2.986324	started	-0.30103
-2.986324	starting	-0.30103
-2.588384	state	-0.3679768
-2.986324	stating	-0.30103
-2.986324	still	-0.30103
-2.986324	strict	-0.30103
-2.986324	strike	-0.30103
-2.986324	structured	-0.30103
-2.986324	sues	-0.30103
-2.810233	suggested	-0.30103
-2.986324	suggestion	-0.30103
-2.986324	supposed	-0.30103
-2.986324	suspect	-0.30103
-2.986324	suspending	-0.30103
-2.685294	tax	-0.30103
-2.442256	texas	-0.39794
-2.810233	than	-0.4771213
-1.85599	that	-0.4191293
-2.986324	thats	-0.30103
-1.461279	the	-0.3705018
-2.810233	then	-0.30103
-2.141226	there	-0.3881802
-2.588384	they	-0.30103
-2.986324	thing	-0.30103
-2.685294	things	-0.30103
-2.333111	think	-0.4149733
-2.986324	third	-0.30103
-1.986324	this	-0.3912066
-2.810233	those	-0.30103
-2.986324	though	-0.30103
-2.986324	thoughts	-0.30103
-2.986324	three	-0.30103
-2.986324	throughout	-0.30103
-2.442256	time	-0.39794
-2.986324	times	-0.30103
-1.606112	to	-0.3560776
-2.986324	told	-0.30103
-2.685294	too	-0.30103
-2.986324	total	-0.30103
-2.986324	touch	-0.30103
-2.986324	translates	-0.30103
-2.986324	trivial	-0.30103
-2.986324	trouble	-0.30103
-2.986324	true	-0.30103
-2.442256	two	-0.39794
-2.986324	type	-0.30103
-2.986324	unacceptable	-0.30103
-2.986324	underline	-0.30103
-2.17341	university	-0.5314789
-2.986324	until	-0.30103
-2.810233	up	-0.30103
-2.509202	us	-0.30103
-2.509202	usenet	-0.7781513
-2.810233	using	-0.30103
-2.986324	usually	-0.30103
-2.685294	utc	-0.30103
-2.986324	uu	-0.30103
-2.442256	uunna	-0.30103
-2.810233	vote	-0.30103
-2.685294	was	-0.30103
-1.87238	we	-0.4259687
-2.986324	wednesday	-0.30103
-2.986324	week	-0.30103
-2.810233	weeks	-0.30103
-2.810233	well	-0.30103
-2.986324	went	-0.30103
-2.986324	west	-0.30103
-2.685294	what	-0.30103
-2.685294	when	-0.30103
-2.810233	where	-0.30103
-2.384264	which	-0.3357921
-2.986324	wider	-0.30103
-2.509202	will	-0.3521825
-2.0086	with	-0.3774183
-2.810233	without	-0.30103
-2.986324	wont	-0.30103
-2.685294	word	-0.30103
-2.986324	words	-0.30103
-2.986324	worked	-0.30103
-2.810233	works	-0.30103
-2.986324	world	-0.30103
-2.384264	would	-0.3357921
-2.986324	wrong	-0.30103
-2.986324	yeah	-0.30103
-2.986324	year	-0.30103
-2.588384	years	-0.3679768
-2.685294	yes	-0.39794
-2.986324	yet	-0.30103
-2.442256	you	-0.39794
-2.986324	your	-0.30103
-2.986324	zones	-0.30103

\2-grams:
-0.2757833	0 </s>
-0.2994642	00 pm
-0.2996875	10 am
-0.12464	1800 utc
-0.4757788	2 am
-0.4755554	2 pm
-0.2936971	2am is
-0.8862981	3 </s>
-0.9944335	3 at
-0.9977648	3 maybe
-0.9977648	3 sets
-0.9707544	3 that
-0.2994642	30 pm
-0.6007175	4 had
-0.5810628	4 to
-0.1753076	5 pm
-0.3005821	7 00
-0.3005821	9 30
-2.189389	<s> 2
-2.229062	<s> 9
-1.951968	<s> a
-1.630478	<s> all	-0.1045315
-1.928032	<s> also
-2.176931	<s> am
-2.164821	<s> an
-1.73386	<s> any	-0.2028336
-2.141569	<s> are
-2.202215	<s> aye
-2.229062	<s> bad
-1.921163	<s> but
-2.229062	<s> correct
-2.176931	<s> directors
-2.229062	<s> donald
-2.229062	<s> first
-2.229062	<s> five
-1.695736	<s> for
-2.189389	<s> formal
-2.229062	<s> germany
-2.215431	<s> he
-1.928032	<s> how
-1.186412	<s> i	-0.09053115
-1.742806	<s> if
-2.229062	<s> ill
-2.229062	<s> im
-2.229062	<s> incorporation
-1.548083	<s> is	-0.69897
-1.751941	<s> its
-2.202215	<s> just
-2.229062	<s> listen
-2.229062	<s> most
-2.176931	<s> motion
-2.229062	<s> my
-2.078461	<s> name
-2.215431	<s> next
-2.164821	<s> no
-2.229062	<s> non
-2.229062	<s> nope
-2.10887	<s> not
-2.098495	<s> on
-2.176931	<s> once
-1.747349	<s> only
-2.202215	<s> please
-1.928032	<s> right
-2.229062	<s> robin
-2.164821	<s> second
-2.229062	<s> so
-2.215431	<s> someone
-2.229062	<s> sorry
-1.921163	<s> speaker
-1.168419	<s> the	-0.08888201
-2.215431	<s> then
-1.863791	<s> there
-2.189389	<s> they
-1.829363	<s> this
-2.164821	<s> time
-2.229062	<s> true
-2.229062	<s> until
-1.487899	<s> we	-0.1847569
-2.215431	<s> where
-1.834915	<s> with
-2.153039	<s> would
-2.229062	<s> yeah
-1.761272	<s> yes	-0.1265704
-2.164821	<s> you
-0.3005821	= 7
-1.71365	a ballot
-1.708434	a big
-1.71365	a bit
-1.71365	a chatting
-1.708434	a director
-1.415252	a few
-1.698184	a formal
-1.708434	a good
-1.114223	a month	-0.4771213
-1.693149	a motion
-1.65028	a name
-1.664104	a network
-1.708434	a newsgroup
-1.693149	a once
-1.698184	a place
-1.698184	a problem
-1.688171	a second
-1.71365	a special
-1.71365	a third
-1.404819	a time
-1.659447	a university
-1.71365	a week
-1.708434	a well
-1.703279	a word
-0.8468382	about the
-0.8855226	about this
-0.8620641	about to
-0.9004092	about using
-0.5487846	academy </s>
-0.5695723	academy and
-0.8605173	academy is
-1.17341	academy then
-0.2904045	acceptable to
-0.3005821	accounts sign
-0.2987948	actually have
-0.2904045	adjourn to
-0.2954635	advantage in
-0.1739676	affiated with	-0.4771213
-0.296793	affilated with
-0.7748028	after 2
-0.7761391	after 5
-0.7352942	after the
-0.3001345	against naming
-0.3001345	agenda when
-0.2757833	ago </s>
-0.3003582	ai dot
-0.9781496	all in
-0.9885007	all it
-0.6971809	all opposed	-0.4771212
-0.6976275	all those
-0.6002709	already know
-0.5810628	already to
-0.3005821	alreday existing
-0.7748028	also incorporating
-0.7768087	also liability
-0.7768087	also some
-0.3005821	alternative institution
-0.5998248	always 2
-0.5958303	always be
-0.8862981	am </s>
-0.9922267	am here
-0.9749648	am i
-0.9966515	am somewhere
-0.9966515	am well
-0.3001345	american tax
-0.2862694	among the
-1.0765	an argument
-1.0765	an email
-1.0765	an environmental
-1.073836	an informal
-1.073836	an international
-1.068556	an organization
-1.556266	and change
-1.560208	and cities
-1.560208	and dariusz
-1.548488	and discussion
-1.560208	and egg
-1.518696	and it
-1.560208	and makes
-1.54465	and once
-1.560208	and replace
-1.556266	and similar
-1.560208	and sound
-1.548488	and state
-1.560208	and stating
-1.471023	and that
-1.149521	and the
-1.494205	and this
-1.552359	and was
-1.47426	and we
-0.2992409	another organization
-0.9267381	any further	-0.4771212
-1.225104	any guests
-1.226878	any motions
-1.226878	any objection
-1.225104	any objections
-1.212882	any other
-1.226878	any personal
-1.226878	any thoughts
-0.3005821	anything going
-0.3003582	applies already
-0.3001345	approve something
-1.169862	are 1800
-0.8727146	are affiated	-0.4771213
-1.172965	are affilated
-1.172965	are asked
-1.171411	are incorporated
-1.154667	are there
-1.137109	are we
-0.3005821	argument against
-0.5936268	around for
-0.5962723	around on
-0.2976815	artificial name
-0.7584371	as a
-0.7352942	as the
-0.7734706	as you
-0.2904045	asked to
-0.3001345	assets also
-0.8253838	at a
-0.5430608	at least
-0.802241	at the
-0.2994642	austin texas
-0.2904045	authority to
-0.1163591	aye </s>
-0.2757833	bad </s>
-0.3005821	ballot mechanism
-0.2757833	ballots </s>
-0.3005821	bank accounts
-1.058338	be a
-1.379513	be an
-1.389947	be around
-1.387315	be called
-1.392595	be decided
-1.392595	be doing
-1.349635	be for
-1.379513	be here
-1.389947	be incorporated
-1.384698	be later
-1.392595	be overused
-1.392595	be ready
-0.3003582	been suggested
-0.5998248	before incorporating
-0.5989339	before you
-0.2994642	behind uunna
-0.2954635	being in
-0.2954635	believe in
-0.7748028	better at
-0.7761391	better done
-0.7655621	better for
-0.2974592	between meeting
-0.6007175	big deal
-0.6011645	big goals
-0.3001345	bit better
-0.299911	bitnet but
-0.7768087	board formally
-0.7675258	board meeting
-0.7741362	board meetings
-0.3005821	build interest
-0.6011645	business over
-0.5901244	business that
-0.8995192	but internet
-0.8915907	but it
-0.9013009	but wider
-0.8863843	but with
-0.3005821	by raising
-0.649864	bylaws </s>
-0.3919312	bylaws that	-0.4771212
-0.7064288	called </s>
-0.772806	called global
-0.7470243	called to
-1.315548	can always
-1.31776	can approve
-1.31776	can comment
-1.315548	can file
-1.302505	can incorporate
-1.31776	can look
-1.004699	can name	-0.4771213
-1.315548	can raise
-1.311157	can say
-1.31776	can speak
-0.6007175	cant really
-0.6011645	cant touch
-0.2983492	challenges network
-0.1746371	change it
-0.2862694	changing the
-0.2992409	character which
-0.2994642	chatting one
-0.2757833	cities </s>
-0.296793	classed with
-0.2994642	clock here
-0.2961277	coast of
-0.3005821	collecting scientists
-0.552954	college </s>
-0.5980449	college or
-0.2990178	collision or
-0.2757833	collisions </s>
-0.2954635	come in
-0.2954635	coming in
-0.2994642	comment second
-0.296793	communication for
-0.2992409	companies like
-0.3005821	computer networks
-0.3003582	conduct business
-0.3001345	consensus seems
-0.3005821	contact since
-0.2965711	contracts and
-0.3001345	contributions tax
-0.2757833	correct </s>
-0.2983492	could not
-0.2961277	creation of
-0.296793	credit for
-0.2904045	dariusz to
-0.2961277	datetime of
-0.2862694	day the
-0.5993792	deal its
-0.5936268	deal with
-0.5067279	debate </s>
-0.8318563	debate and
-0.8364452	debate on
-0.299911	decided later
-0.2757833	deductible </s>
-0.3005821	defined radius
-0.2904045	devoted to
-0.3005821	difficult part
-0.5989339	director has
-0.6011645	director present
-0.8862981	directors </s>
-0.9955411	directors dont
-0.9977648	directors may
-0.9824326	directors meeting
-0.9977648	directors total
-0.7064288	discuss </s>
-0.7768087	discuss level
-0.7649096	discuss this
-0.8098707	discussion </s>
-0.8959776	discussion if
-0.8744734	discussion is
-0.8915907	discussion on
-0.2994642	distinguishes uunna
-0.552954	do </s>
-0.6002709	do something
-0.5967147	does not
-0.5901244	does that
-0.2994642	doing here
-0.3003582	donald works
-0.552954	done </s>
-0.5909974	done in
-0.6945111	dont have
-0.3959278	dont think	-0.4771212
-0.6011645	dot future
-0.6011645	dot uu
-0.3005821	early evening
-0.3005821	edt translates
-0.3005821	egg heads
-0.3003582	elapsed change
-0.296793	else with
-0.2904045	email to
-0.2757833	enough </s>
-0.2992409	environmental organization
-0.2992409	essence if
-0.3001345	evening 1800
-0.6976275	every sense
-0.3963742	every two	-0.4771212
-0.552954	everyone </s>
-0.6011645	everyone holding
-0.2952423	example we
-0.3001345	except when
-0.2757833	exemption </s>
-0.2965711	exempts this
-0.296793	existence for
-0.2994642	existing here
-0.2757833	explain </s>
-0.2990178	exxon or
-0.2987948	faces other
-0.1756433	favor please
-0.6011645	few words
-0.5998248	few years
-0.1686482	file the
-0.2992409	financiation would
-0.2943587	find a
-0.2961277	first of
-0.3005821	five minute
-0.2936971	floor is
-0.2757833	fold </s>
-1.009016	for a
-1.495599	for an
-1.502024	for discussion
-1.511843	for example
-1.502024	for incorporating
-1.511843	for introduction
-1.508545	for me
-1.511843	for meetigs
-1.495599	for one
-1.486137	for other
-1.502024	for people
-1.337077	for the
-1.205876	for two	-0.4771213
-1.495599	for uunna
-1.492422	for which
-0.8995192	formal board
-0.8977448	formal directors
-0.8889797	formal meeting
-0.8977448	formal meetings
-0.3003582	formally meet
-0.2959062	friday i
-0.9524534	from american
-0.9524534	from home
-0.9506717	from many
-0.6514235	from outside
-0.1755314	further debate	-0.4771212
-0.3003582	future already
-0.2757833	fyi </s>
-0.3005821	general motors
-0.3003582	germany 5
-0.3001345	get things
-0.2862694	getting the
-0.2965711	gives this
-0.9806814	global </s>
-1.108598	global as
-1.111263	global challenges
-1.109928	global isnt
-0.80492	global network	-0.4771212
-1.096807	global university
-0.2757833	goals </s>
-0.2904045	going to
-0.2981265	gone on
-0.552954	good </s>
-0.6011645	good schedule
-0.5993792	guests from
-0.5936268	guests with
-0.573024	had the
-0.5810628	had to
-0.2904045	hand to
-0.552954	hands </s>
-0.5875161	hands is
-0.2994642	happen here
-0.9459192	has </s>
-1.0765	has been
-1.0765	has elapsed
-1.0765	has gone
-1.0765	has logged
-1.01901	has to
-1.020724	have </s>
-0.7996716	have a
-1.109484	have formal
-0.4064523	have to
-0.5998248	he should
-0.6011645	he usually
-0.3005821	heads world
-0.649864	here </s>
-0.6879074	here in
-0.9920066	here or
-0.998211	here shortly
-0.3003582	holding up
-0.2996875	home directors
-0.756514	how is
-0.7754704	how many
-0.7748028	how often
-1.548488	i am
-1.56153	i believe
-1.52963	i can
-1.2605	i dont	-0.4771213
-1.54211	i like
-1.262159	i move	-0.4771213
-1.545287	i second
-1.56153	i suspect
-0.863223	i think	-0.05511405
-1.558233	i vote
-1.55496	i was
-1.56153	i went
-1.56153	i worked
-1.25393	i would	-0.4771213
-1.56153	i wrong
-0.6011645	idea behind
-0.5923101	idea of
-0.6007175	ideas around
-0.5967147	ideas can
-1.111469	if i
-1.139898	if necessary
-1.1262	if on
-1.141447	if someone
-1.138355	if speaker
-1.052006	if the
-1.107146	if we
-0.2994642	ill second
-0.2862694	im the
-1.505957	in a
-1.58795	in after
-1.594948	in austin
-1.584493	in discussion
-1.594948	in essence
-1.58795	in every
-1.594948	in existence
-1.295685	in favor	-0.4771212
-1.581063	in from
-1.584493	in incorporating
-1.58795	in informal
-1.594948	in mumbai
-1.594948	in starting
-1.116652	in texas
-0.78561	in the	-0.1497741
-1.53569	in this
-1.092093	incorporate and
-1.109484	incorporate as
-0.7991286	incorporate in	-0.4771212
-1.109484	incorporate outside
-0.6297832	incorporate with	-0.2040917
-0.552954	incorporated </s>
-0.6011645	incorporated distinguishes
-0.8812396	incorporating in
-0.8744734	incorporating is
-0.9004092	incorporating means
-0.8863843	incorporating with
-0.3003582	incorporation isnt
-0.2961277	incorporator of
-0.6918576	informal meeting
-0.3965975	informal meetings
-0.2757833	informed </s>
-0.2994642	institution has
-0.2757833	interest </s>
-0.7768087	international character
-0.7768087	international clock
-0.7701579	international network
-0.7064288	internet </s>
-0.7701579	internet academy
-0.7754704	internet seems
-0.3005821	into mit
-0.3001345	introduction things
-0.3001345	irs tax
-1.357839	is a
-1.714965	is acceptable
-1.714965	is another
-1.714965	is anything
-1.705848	is better
-1.705848	is called
-1.710383	is done
-1.710383	is everyone
-1.714965	is getting
-1.667041	is it
-1.40708	is no	-0.4771213
-1.39589	is not
-1.714965	is number
-1.714965	is probably
-1.701361	is speaker
-1.091559	is that
-1.487234	is the
-0.9352805	is there
-1.692524	is two
-1.714965	is unacceptable
-1.69692	is usenet
-0.5888183	isnt a
-0.6002709	isnt too
-0.2950212	issues that
-0.2757833	ist </s>
-1.142036	it </s>
-1.356826	it exempts
-1.356826	it gives
-1.354395	it had
-1.287165	it is
-1.349574	it later
-1.351978	it necessary
-1.354395	it quartznet
-1.005234	it to
-1.354395	it works
-1.342442	it would
-0.5923101	item of
-0.5962723	item on
-0.9977648	its 10
-0.9966515	its always
-0.9867583	its not
-0.9977648	its restrictions
-0.9977648	its trivial
-0.7768087	just fyi
-0.7734706	just one
-0.7470243	just to
-0.7064288	know </s>
-0.7748028	know people
-0.7352942	know the
-0.2757833	lately </s>
-0.5067279	later </s>
-0.828608	later in
-0.8364452	later on
-0.299911	laws about
-0.5936268	least for
-0.5875161	least is
-0.6011645	legal authority
-0.6011645	legal issues
-0.5998248	less often
-0.6011645	less strict
-0.2961277	level of
-0.2936971	liability is
-1.076946	like bitnet
-1.076946	like exxon
-1.049936	like that
-0.5777305	like the
-1.028477	like to
-0.2936971	listen is
-0.3005821	logged into
-0.2757833	long </s>
-0.3003582	look up
-0.5984892	mad global
-0.5918721	mad i
-0.2981265	make it
-0.3005821	makes contributions
-0.6962892	many directors
-0.3957048	many other
-0.2757833	matter </s>
-0.3003582	may vote
-0.2994642	maybe you
-0.5989339	me all
-0.5931875	me and
-0.1730765	means that
-0.296793	mechanism for
-0.552954	meet </s>
-0.5993792	meet once
-0.3001345	meetigs after
-1.009389	meeting </s>
-1.456168	meeting among
-1.426293	meeting can
-1.450027	meeting every
-1.440974	meeting has
-1.369541	meeting is
-1.453087	meeting less
-1.456168	meeting per
-1.385013	meeting that
-1.420557	meeting there
-1.456168	meeting though
-1.456168	meeting times
-1.333111	meeting to
-1.40654	meeting with
-0.9781496	meetings and
-0.9900311	meetings are
-0.9955411	meetings as
-0.9977648	meetings scattered
-0.9955411	meetings too
-0.2757833	members </s>
-0.3005821	minute recess
-0.2961277	minutes of
-0.3003582	mit he
-0.5647199	month </s>
-0.8898483	month and
-0.5911067	month is
-0.299911	moo at
-0.3003582	more item
-0.2961277	most of
-0.8944371	motion on
-0.6010528	motion passes
-0.5862177	motion to
-0.2904045	motions to
-0.2904045	motors to
-0.1730765	move that
-0.2757833	mumbai </s>
-0.2976815	my name
-0.2862694	myselfah the
-0.9806814	name </s>
-1.40698	name college
-1.409628	name collisions
-1.393976	name global
-1.334226	name is
-1.399131	name new
-1.35951	name of
-1.391421	name or
-1.388882	name other
-1.40698	name quartznet
-1.404348	name right
-1.087852	name this	-0.4771212
-0.2992409	named global
-0.7064288	naming </s>
-0.7694983	naming it
-0.7649096	naming this
-0.2904045	necessarily to
-0.6857283	necessary a
-0.3873145	necessary to	-0.4771212
-0.6011645	need secret
-0.5810628	need to
-0.5931875	net and
-0.6002709	net just
-0.1909901	network academy	-0.3604823
-1.129638	network in
-1.143447	network international
-0.2757833	networks </s>
-0.07864375	new network	-0.7781512
-0.6011645	newsgroup devoted
-0.573024	newsgroup the
-0.6007175	next item
-0.5949475	next meeting
-0.3003582	nice ideas
-0.9276907	no </s>
-1.039158	no collision
-1.038044	no objections
-1.017416	no of
-0.7375705	no problem
-0.3001345	non board
-0.2959062	nope i
-1.274133	not a
-1.33752	not come
-1.320785	not incorporate
-1.323137	not like
-1.33509	not mad
-1.332673	not many
-1.33752	not necessarily
-1.332673	not necessary
-1.33752	not ruled
-1.237783	not to
-1.33752	not yet
-0.2952423	now we
-0.3005821	number three
-0.2904045	objection to
-0.5962723	objections it
-0.5810628	objections to
-1.465622	of a
-1.549631	of ai
-1.533388	of all
-1.533388	of an
-1.546334	of business
-1.549631	of communication
-1.505598	of meeting
-1.543061	of naming
-1.546334	of our
-1.549631	of speakers
-1.246949	of state
-1.243664	of texas
-0.9013009	of the
-1.549631	of thing
-1.222896	of this
-0.3005821	offer classed
-0.8098707	often </s>
-0.9013009	often enough
-0.8829477	often i
-0.8620641	often to
-1.228214	on friday
-0.3180749	on the
-1.208598	on this
-1.22599	on too
-1.228214	on wednesday
-0.07783876	once a	-0.3560857
-1.0765	one alreday
-1.073836	one every
-1.07251	one formal
-1.058184	one meeting
-1.0765	one more
-1.0765	one remark
-1.071188	only 3
-1.0765	only advantage
-1.073836	only aye
-1.071188	only directors
-1.075166	only means
-1.06987	only one
-0.6011645	open bank
-0.6011645	open possibilities
-0.3726933	opposed </s>
-0.6967348	opposed say
-1.186553	or any
-1.200549	or contact
-1.195247	or debate
-1.200549	or general
-1.148656	or is
-1.193495	or once
-1.181418	or university
-1.159844	or we
-0.2757833	order </s>
-1.108598	organization called
-1.111263	organization collecting
-1.10595	organization from
-0.8069046	organization incorporate
-1.109928	organization legal
-1.111263	organization named
-0.2954635	organizations in
-1.226878	other alternative
-1.226878	other companies
-1.226878	other hand
-1.226878	other nice
-1.225104	other really
-1.225104	other similar
-0.9267381	other than	-0.4771212
-1.218078	other time
-0.3005821	ouch 2am
-0.6007175	our hands
-0.6007175	our net
-0.6007175	out college
-0.5993792	out new
-0.7649096	outside and
-0.7636073	outside of
-0.7352942	outside the
-0.3005821	over computer
-0.3005821	overused lately
-0.3005821	papers myselfah
-0.2757833	paperwork </s>
-0.2936971	part is
-0.2954635	participate in
-0.6007175	passes 4
-0.573024	passes the
-0.2862694	pave the
-0.8977448	people from
-0.8915907	people on
-0.9004092	people start
-0.8950966	people think
-0.2996875	per month
-0.2994642	period has
-0.299911	person at
-0.3005821	personal assets
-0.8744734	place is
-0.8977448	place new
-0.8995192	place something
-0.8959776	place which
-0.296793	pleaded for
-0.7064288	please </s>
-0.7761391	please raise
-0.7748028	please say
-0.9459192	pm </s>
-1.0765	pm edt
-1.046805	pm in
-1.0765	pm ist
-1.0765	pm poland
-1.071188	pm us
-0.3005821	point except
-0.2757833	poland </s>
-0.2994642	poses an
-0.2992409	possibilities which
-0.2757833	present </s>
-0.299911	probably often
-0.8098707	problem </s>
-0.8744734	problem is
-0.8995192	problem naming
-0.8863843	problem with
-0.6011645	put singapore
-0.5993792	put us
-0.5989339	quartznet has
-0.5918721	quartznet i
-0.2961277	question of
-0.2992409	radius like
-0.5888183	raise a
-0.6011645	raise your
-0.3003582	raising our
-0.2961277	readers of
-0.2904045	ready to
-0.6011645	really artificial
-0.6007175	really start
-0.296793	reason for
-0.2757833	recess </s>
-0.2757833	remark </s>
-0.296793	replace with
-0.3003582	request before
-0.2904045	restrictions to
-0.7064288	right </s>
-0.7768087	right now
-0.7768087	right thats
-0.296793	road for
-0.2994642	robin has
-0.3003582	room where
-0.3003582	ruled out
-0.2981265	said it
-0.8098707	say </s>
-0.8769984	say a
-0.8995192	say aye
-0.8968602	say no
-0.3005821	scattered throughout
-0.2757833	schedule </s>
-0.2965711	scientists and
-1.019542	second and
-0.7331401	second it
-1.036934	second just
-1.012147	second that
-1.019542	second this
-0.3005821	secret ballots
-0.1736332	secretary of	-0.4771212
-0.6936248	seems not
-0.3873145	seems to
-0.1736332	sense of
-0.2862694	sets the
-0.2757833	shortly </s>
-0.5393874	should be
-0.8424172	should discuss
-0.8279613	should we
-0.3005821	sign contracts
-0.6011645	similar structured
-0.6002709	similar things
-0.2965711	since this
-0.2992409	singapore if
-0.299911	small but
-0.3001345	so what
-0.299911	some people
-0.5967147	someone can
-0.6011645	someone sues
-0.7748028	something about
-0.7768087	something by
-0.7714799	something other
-0.552954	somewhere </s>
-0.6011645	somewhere else
-0.2983492	sorry not
-0.2961277	sort of
-0.3005821	sound financiation
-0.2994642	speak only
-0.3001345	speaker 3
-0.7768087	speaker 4
-0.2904045	speakers to
-0.2974592	special meeting
-0.6011645	start coming
-0.6007175	start without
-0.2757833	started </s>
-0.3005821	starting small
-0.5357448	state in	-0.4771213
-0.8305541	state of
-0.8430859	state suggested
-0.2950212	stating that
-0.2987948	still have
-0.3005821	strict laws
-0.3003582	strike out
-0.3005821	structured organizations
-0.2996875	sues us
-0.552954	suggested </s>
-0.5901244	suggested that
-0.299911	suggestion about
-0.2904045	supposed to
-0.2950212	suspect that
-0.299911	suspending discussion
-0.7649096	tax and
-0.7768087	tax deductible
-0.7768087	tax exemption
-0.4895325	texas </s>
-0.9824326	texas and
-0.9713835	texas is
-0.9920066	texas or
-0.1746371	than university
-1.331506	that </s>
-1.547744	that i
-1.602252	that its
-1.294443	that meeting
-1.598849	that one
-1.598849	that only
-1.612624	that put
-1.216173	that the
-1.575747	that there
-1.313347	that they
-1.287768	that this	-0.4771213
-1.598849	that uunna
-0.7650338	that we	-0.1036088
-1.609139	that what
-1.602252	that will
-1.598849	that you
-0.3001345	thats what
-2.039274	the agenda
-2.018857	the better
-2.039274	the between
-2.018857	the board
-1.569177	the bylaws	-0.1328518
-2.039274	the consensus
-2.039274	the creation
-2.039274	the datetime
-2.039274	the day
-2.008998	the debate
-2.039274	the difficult
-2.039274	the floor
-1.980696	the global
-2.028945	the guests
-1.743502	the idea
-2.039274	the incorporator
-2.018857	the international
-2.039274	the irs
-2.008998	the later
-2.039274	the matter
-1.679666	the meeting
-1.999357	the meetings
-2.039274	the members
-2.039274	the minutes
-1.562153	the motion
-1.137492	the name
-2.028945	the net
-2.028945	the newsgroup
-2.028945	the next
-1.989926	the no
-1.989926	the one
-1.989926	the only
-1.707968	the other
-2.039274	the papers
-2.039274	the paperwork
-2.039274	the person
-2.008998	the problem
-2.039274	the question
-2.039274	the reason
-2.039274	the road
-1.743502	the secretary	-0.4771213
-2.028945	the sense
-2.039274	the suggestion
-1.989926	the time
-2.039274	the trouble
-1.989926	the two
-1.727916	the us
-2.039274	the west
-1.738244	the word
-0.6002709	then after
-0.5936268	then for
-1.155269	there </s>
-1.285777	there a
-1.328529	there an
-1.031424	there any
-0.7240345	there is	-0.1391038
-1.316965	there on
-1.332454	there should
-1.336414	there somewhere
-1.330487	there will
-0.8950966	they are
-0.9004092	they cant
-0.880388	they we
-0.8959776	they would
-0.2757833	thing </s>
-0.7064288	things </s>
-0.7768087	things started
-0.772806	things which
-1.105071	think global
-1.103974	think or
-1.111708	think ouch
-0.6268532	think that
-0.7985862	think we
-0.3003582	third director
-1.255188	this </s>
-1.499362	this applies
-1.418306	this is
-1.181418	this meeting
-1.499362	this moo
-1.488013	this new
-0.8973023	this organization	-0.115153
-1.0232	this place
-1.499362	this point
-1.499362	this room
-1.499362	this sort
-1.468839	this university
-1.482448	this would
-0.5909974	those in
-0.6002709	those opposed
-0.2983492	though not
-0.2981265	thoughts on
-0.2992409	three if
-0.2987948	throughout any
-0.4895325	time </s>
-0.9589742	time to
-0.9928876	time which
-0.998211	time zones
-0.2757833	times </s>
-1.908005	to 0
-1.892319	to 1800
-1.877179	to 3
-1.908005	to adjourn
-1.062907	to be
-1.908005	to build
-1.908005	to changing
-1.908005	to conduct
-1.900091	to deal
-1.606975	to discuss
-1.900091	to do
-1.908005	to early
-1.900091	to everyone
-1.908005	to explain
-1.900091	to file
-1.908005	to get
-1.908005	to happen
-1.583653	to have
-1.587454	to incorporate	-0.4771213
-1.892319	to internet
-1.892319	to know
-1.908005	to make
-1.900091	to meet
-1.908005	to offer
-1.900091	to open
-1.908005	to order
-1.908005	to participate
-1.884683	to say
-1.869803	to second
-1.908005	to strike
-1.908005	to suspending
-1.743729	to that
-1.408517	to the
-1.783823	to this
-1.908005	to type
-1.877179	to usenet
-1.869803	to uunna
-0.2950212	told that
-0.7768087	too long
-0.7761391	too mad
-0.7748028	too often
-0.2757833	total </s>
-0.2987948	touch any
-0.2904045	translates to
-0.2904045	trivial to
-0.296793	trouble with
-0.2987948	true any
-0.998211	two fold
-0.6976275	two weeks
-0.998211	two year
-0.6967348	two years
-0.3005821	type request
-0.2757833	unacceptable </s>
-0.2862694	underline the
-0.4311582	university </s>
-1.208598	university and
-0.7440894	university in	-0.1943731
-1.223778	university new
-1.2271	university without
-0.2862694	until the
-0.573024	up the
-0.5958303	up there
-0.8862981	us </s>
-0.9781496	us and
-0.9966515	us me
-0.9977648	us pleaded
-0.9922267	us time
-0.07859899	usenet university	-0.1122874
-0.573024	using the
-0.5989339	using uunna
-0.3003582	usually does
-0.7748028	utc 2
-0.7064288	utc </s>
-0.7768087	utc =
-0.3003582	uu dot
-1.063339	uunna academy
-1.071188	uunna from
-1.036934	uunna is
-1.068556	uunna like
-1.073836	uunna was
-1.071188	uunna will
-0.552954	vote </s>
-0.5936268	vote for
-0.7748028	was about
-0.7761391	was good
-0.7768087	was told
-1.595389	we actually
-0.9925019	we are	-0.1200348
-0.9900311	we can	-0.1274635
-1.592091	we cant
-1.595389	we could
-1.592091	we do
-1.28454	we have
-1.286161	we incorporate
-1.296017	we need
-1.58557	we should
-1.58557	we state
-1.595389	we still
-1.595389	we supposed
-1.291061	we will
-1.595389	we wont
-0.2959062	wednesday i
-0.2757833	week </s>
-0.5909974	weeks in
-0.5980449	weeks or
-0.6011645	well defined
-0.6011645	well informed
-0.2904045	went to
-0.3005821	west coast
-0.7721425	what are
-0.7629576	what i
-0.7748028	what should
-0.7754704	when how
-0.7748028	when people
-0.7610145	when we
-0.6007175	where does
-0.5989339	where you
-1.08407	which i
-1.071696	which is
-1.098101	which not
-1.111263	which poses
-1.111263	which readers
-0.7957766	which we
-0.2757833	wider </s>
-0.6469828	will be
-0.9524534	will faces
-0.94537	will have
-0.9524534	will pave
-1.148695	with a
-1.482709	with big
-1.485574	with credit
-1.46866	with global
-1.482709	with ideas
-1.479862	with informal
-1.479862	with internet
-1.482709	with legal
-1.482709	with less
-1.471433	with no
-0.9536141	with the	-0.2106182
-1.008453	with usenet	-0.60206
-1.482709	with using
-0.5888183	without a
-0.6011645	without being
-0.3005821	wont find
-0.7754704	word seems
-0.7694983	word university
-0.772806	word which
-0.296793	words for
-0.299911	worked years
-0.5936268	works for
-0.5998248	works they
-0.2983492	world network
-1.095516	would be
-0.8075681	would like
-1.098101	would not
-1.109928	would open
-1.109928	would put
-1.111263	would underline
-0.2757833	wrong </s>
-0.2757833	yeah </s>
-0.3005821	year period
-0.5067279	years </s>
-0.8437555	years ago
-0.8430859	years before
-0.3726933	yes </s>
-0.6927403	yes there
-0.3001345	yet when
-0.519308	you can
-0.9911275	you have
-0.9964292	you know
-0.998211	you said
-0.3003582	your hands
-0.2965711	zones and

\3-grams:
-0.226658	once a month
-0.393629	network academy </s>
-0.3971937	network academy and
-0.05062063	are affiated with
-0.4297112	<s> all opposed
-0.3493524	<s> any further
-0.4644948	we are affiated
-0.2500867	the bylaws that
-0.4839803	we can name
-0.1132524	further debate </s>
-0.096574	i dont think
-0.05104049	in favor please
-0.05101249	any further debate
-0.8915193	<s> i dont
-0.6663786	<s> i think
-0.1598009	incorporate in texas
-0.1418984	state in the
-0.3320509	university in the
-0.1429073	to incorporate in
-0.08448727	<s> is there
-0.5192744	there is no
-0.3724819	a month </s>
-0.3779984	a month is
-0.05039686	i move that
-0.158706	can name this
-0.05482958	global network academy
-0.02655009	new network academy
-0.1380693	is no problem
-0.163965	secretary of state
-0.09259899	all opposed </s>
-0.4527584	this organization incorporate
-0.0505367	the secretary of
-0.05078852	other than university
-0.1403059	bylaws that we
-0.9090665	<s> the motion
-0.8431641	<s> the name
-0.5075378	in the bylaws
-0.3673957	with the name
-0.1428674	dont think we
-0.4852294	i think that
-0.1559791	name this place
-0.1494197	that this organization
-0.1705129	necessary to incorporate
-0.1345764	every two weeks
-0.1344949	for two years
-0.2890752	usenet university </s>
-0.01835676	with usenet university
-0.3836603	<s> we can
-0.5340341	that we are
-0.1553008	affiated with usenet
-0.3521196	incorporate with the
-0.1435226	i would like
-0.2444476	<s> yes </s>

\end\
